digraph Tree {
node [shape=box, style="filled, rounded", color="black", fontname=helvetica] ;
edge [fontname=helvetica] ;
0 [label="price <= 0.079\ngini = 0.667\nsamples = 9346\nvalue = [3115.333, 3115.333, 3115.333]\nclass = Private room", fillcolor="#ffffff"] ;
1 [label="price <= 0.022\ngini = 0.54\nsamples = 3555\nvalue = [245.359, 2564.357, 2808.188]\nclass = Shared room", fillcolor="#f5effd"] ;
0 -> 1 [labeldistance=2.5, labelangle=45, headlabel="True"] ;
3 [label="gini = 0.288\nsamples = 474\nvalue = [1.118, 341.571, 1623.484]\nclass = Shared room", fillcolor="#9c63ea"] ;
1 -> 3 ;
4 [label="gini = 0.52\nsamples = 3081\nvalue = [244.241, 2222.786, 1184.704]\nclass = Private room", fillcolor="#acf4ca"] ;
1 -> 4 ;
2 [label="availability_365 <= 0.963\ngini = 0.379\nsamples = 5791\nvalue = [2869.974, 550.976, 307.146]\nclass = Entire home/apt", fillcolor="#eca36e"] ;
0 -> 2 [labeldistance=2.5, labelangle=-45, headlabel="False"] ;
5 [label="gini = 0.286\nsamples = 5402\nvalue = [2774.402, 369.034, 175.512]\nclass = Entire home/apt", fillcolor="#ea985e"] ;
2 -> 5 ;
6 [label="gini = 0.644\nsamples = 389\nvalue = [95.573, 181.942, 131.634]\nclass = Private room", fillcolor="#dbfae8"] ;
2 -> 6 ;
}